digraph Tree {
0 [label="X[0] <= 10.5009\ngini = 0.498367346939\nsamples = 70", shape="box"] ;
1 [label="X[1] <= 1556.2566\ngini = 0.448558205767\nsamples = 53", shape="box"] ;
0 -> 1 ;
2 [label="X[1] <= 427.0753\ngini = 0.394965277778\nsamples = 48", shape="box"] ;
1 -> 2 ;
3 [label="gini = 0.4664\nsamples = 27\nvalue = [ 10.  17.]", shape="box"] ;
2 -> 3 ;
4 [label="gini = 0.2449\nsamples = 21\nvalue = [  3.  18.]", shape="box"] ;
2 -> 4 ;
5 [label="gini = 0.0000\nsamples = 5\nvalue = [ 5.  0.]", shape="box"] ;
1 -> 5 ;
6 [label="X[2] <= 87.3865\ngini = 0.207612456747\nsamples = 17", shape="box"] ;
0 -> 6 ;
7 [label="gini = 0.0000\nsamples = 12\nvalue = [ 12.   0.]", shape="box"] ;
6 -> 7 ;
8 [label="gini = 0.4800\nsamples = 5\nvalue = [ 3.  2.]", shape="box"] ;
6 -> 8 ;
}